// #### Generated By: http://www.cufonfonts.com ####
/*!
 * The following copyright notice may not be removed under any circumstances.
 * 
 * Copyright:
 * Jakub Degórski 2000. All Rights Reserved
 * 
 * Description:
 * Template
 * 
 * Manufacturer:
 * High-Logic
 * 
 * Designer:
 * High-Logic - Erwin Denissen 1999
 * 
 * Vendor URL:
 * http://www.high-logic.com/
 */
Cufon.registerFont({"w":636,"face":{"font-family":"NewUnicodeFont","font-weight":400,"font-stretch":"normal","units-per-em":"2048","panose-1":"2 0 0 0 0 0 0 0 0 0","ascent":"1638","descent":"-410","x-height":"18","cap-height":"2","bbox":"-84 -1799 1884 380","underline-thickness":"48","underline-position":"-140","unicode-range":"U+0020-U+2044"},"glyphs":{" ":{"w":390},"!":{"d":"1884,-622v-297,-60,-596,-60,-900,-1v-304,59,-605,59,-902,-1v33,304,190,530,470,678v280,148,562,153,844,17v282,-136,445,-367,488,-693xm1880,-829v-297,-61,-598,-61,-902,-1v-304,60,-603,59,-900,-2v43,-326,206,-557,488,-693v282,-136,564,-131,844,17v280,148,437,374,470,679xm112,-864v319,59,600,59,841,2v241,-57,536,-61,885,-12v-29,-256,-178,-458,-444,-604v-266,-146,-531,-158,-796,-36v-265,122,-427,338,-486,650","w":1957},"\"":{"w":237},"#":{},"$":{},"%":{},"&":{"w":486},"'":{"w":169},"(":{"w":336},")":{"w":384},"*":{"w":492},"+":{},",":{"d":"258,-270v97,7,144,55,136,142r-23,236v-12,105,-69,164,-170,164v-82,0,-130,-56,-122,-130r27,-253v9,-91,60,-144,152,-159","w":462},"-":{"w":471},"\u2010":{"w":471},".":{"d":"63,-150v0,-121,63,-196,175,-196v120,0,190,65,190,181v0,115,-69,178,-193,178v-103,0,-172,-66,-172,-163","w":518},"\/":{"w":357},"0":{"d":"1058,20r-664,0v-295,1,-416,-236,-369,-713v48,-482,226,-728,539,-727r545,1v327,-6,449,225,413,698v-38,487,-177,741,-464,741xm408,-466v23,63,60,114,123,114r392,-1v67,-7,113,-38,140,-91v33,-37,55,-129,68,-274v13,-145,2,-236,-30,-277v-32,-41,-80,-72,-146,-72r-302,0v-87,7,-146,51,-186,127v-20,38,-43,117,-57,244v-14,127,-12,203,-2,230","w":1544},"1":{"d":"163,-1398r409,0r-139,1400r-418,0","w":578},"2":{"d":"1265,-611r-514,248r742,0r-37,368r-1216,0v-144,-14,-229,-80,-241,-200v-12,-119,43,-219,151,-298r808,-374v76,-31,110,-65,102,-105v-8,-40,-53,-57,-136,-57r-812,0r37,-369r969,0v260,9,409,118,424,329v15,197,-79,362,-277,458","w":1546},"3":{"d":"59,-358r898,-1v47,-5,88,-37,113,-99v18,-45,-4,-84,-57,-84r-553,-1r46,-346r497,1v63,-1,94,-39,94,-116v0,-39,-46,-54,-119,-54r-856,-1r34,-342r896,0v284,-1,427,116,427,353v0,145,-73,255,-162,334v119,72,169,197,124,369v-54,209,-232,350,-513,350r-913,0","w":1473},"4":{"d":"1086,-916r-449,332r415,0xm1020,-255r-815,0v-123,0,-190,-62,-178,-184v8,-78,67,-129,137,-182r992,-748v37,-31,97,-43,178,-43v108,0,173,44,163,140r-127,1272r-375,0","w":1498},"5":{"d":"1064,-897v307,4,476,121,458,417v-24,375,-238,489,-629,489r-891,0r35,-347r875,0v113,-2,179,-10,200,-91v-3,-95,-71,-101,-181,-101r-708,0v-111,0,-161,-56,-150,-168r48,-483v15,-145,89,-217,224,-217r1191,0r-37,371r-1023,0r-13,130r601,0","w":1554},"6":{"d":"1089,-620r-707,0v-53,192,-4,324,153,324r484,0v98,-5,162,-42,178,-115v30,-132,-10,-209,-108,-209xm1029,-951v365,-21,551,237,478,592v-52,250,-216,377,-463,377r-666,0v-117,-23,-212,-85,-284,-188v-72,-103,-97,-276,-73,-519v25,-248,103,-433,233,-555v130,-122,364,-166,704,-166r556,0r-34,339r-824,0v-87,5,-147,45,-179,120r552,0","w":1549},"7":{"d":"952,1r89,-872v19,-111,-30,-169,-147,-169r-854,-1r32,-366r967,0v306,15,438,191,404,527r-90,881r-401,0","w":1459},"8":{"d":"968,15r-516,0v-277,-27,-437,-145,-448,-355v-11,-202,66,-341,201,-414v-73,-80,-118,-182,-97,-299v41,-229,204,-361,452,-361r590,0v253,9,388,132,371,366v-9,119,-73,216,-160,295v120,73,170,213,121,412v-52,212,-232,356,-514,356xm459,-321r507,0v83,-5,134,-42,150,-109v16,-67,-23,-124,-120,-124r-535,0v-65,21,-100,60,-105,115v-5,55,30,95,103,118xm547,-876r456,0v75,-5,121,-41,137,-106v16,-65,-15,-120,-98,-120r-463,0v-67,8,-107,41,-118,100v-11,59,17,101,86,126","w":1521},"9":{"d":"462,-789r705,0v52,-191,3,-322,-152,-322r-482,0v-98,5,-162,42,-178,114v-29,132,11,208,107,208xm522,-449v-363,22,-548,-237,-475,-589v52,-249,215,-376,461,-376r663,0v117,23,211,85,283,187v72,102,97,275,72,518v-24,229,-73,400,-145,511v-82,126,-198,206,-349,206r-993,0r34,-338r821,0v107,-7,175,-47,204,-119r-576,0","w":1542},":":{"w":231},";":{"w":237},"<":{},"=":{},">":{},"?":{"w":567},"@":{"w":579},"A":{"d":"-35,-4r95,-953v44,-287,217,-450,519,-449r474,1v275,19,415,168,387,445r-96,958r-372,0r43,-426r-622,-3r-42,427r-386,0xm446,-927r-16,149r621,0r13,-117v20,-108,-10,-181,-94,-181r-376,1v-100,3,-138,53,-148,148","w":1441},"B":{"d":"102,-1398r969,0v269,22,408,143,408,363v0,138,-48,244,-129,317v105,63,147,181,121,353v-37,246,-222,364,-551,364r-954,1xm425,-338r483,1v77,-3,120,-31,130,-85v10,-54,-29,-94,-117,-95r-478,-5xm473,-862r483,1v77,-3,120,-31,130,-85v10,-54,-27,-100,-111,-100r-484,0","w":1478},"C":{"d":"1355,0r-987,0v-284,-17,-404,-250,-360,-701v44,-451,219,-699,525,-699r961,1r-34,341r-849,0v-63,1,-110,23,-139,67v-68,173,-97,347,-81,520v5,56,41,91,100,106r900,2","w":1454},"D":{"d":"103,-1394r953,1v303,17,432,250,386,698v-46,448,-210,698,-497,698r-982,-1xm359,-354r547,1v58,-8,94,-43,125,-95v58,-98,104,-393,40,-529v-21,-47,-64,-75,-128,-75r-515,0","w":1464},"E":{"d":"1359,0r-986,0v-283,-17,-403,-250,-359,-700v44,-450,219,-697,525,-697r959,0r-34,340r-850,1v-72,-3,-118,14,-129,54r-34,120r997,1r-36,336r-989,-4v-3,86,3,187,73,187r899,-1","w":1471},"F":{"d":"-32,3r86,-878v31,-335,199,-525,507,-525r964,1r-34,342r-854,0v-73,-3,-125,31,-157,102r-7,73r1003,-1r-34,337r-997,-1r-56,550r-421,0","w":1492},"G":{"d":"1359,0r-987,0v-284,-17,-404,-250,-360,-701v44,-451,219,-699,525,-699r963,1r-36,341r-849,0v-63,1,-110,23,-139,67v-68,173,-97,347,-81,520v5,56,41,91,100,106r532,1r42,-409r367,1","w":1462},"H":{"d":"102,-1402r418,0r-52,518r520,-2r55,-519r418,3r-140,1406r-423,-2r56,-542r-521,0r-53,540r-418,0","w":1427},"I":{"d":"116,-1398r409,0r-139,1400r-418,0","w":499},"J":{"d":"938,-1406r-86,878v-31,335,-199,525,-507,525r-381,0r36,-342r269,-1v77,-2,146,-42,155,-131r93,-929r421,0","w":904},"K":{"d":"95,-1407r458,0r-67,674v12,-86,54,-152,111,-215r417,-459r552,0r-524,635v-42,49,-43,99,-9,152r399,616r-558,0r-329,-479v-49,-65,-70,-138,-62,-219r-70,698r-458,0","w":1492},"L":{"d":"517,-1401r-88,872v-1,85,41,140,129,140r854,1r-37,395r-968,0v-305,-15,-437,-191,-403,-527r89,-881r424,0","w":1469},"M":{"d":"-33,6r141,-1407r1255,3v277,-8,423,141,393,444r-96,959r-355,0r84,-849v20,-105,-10,-154,-91,-154r-188,1r-101,1001r-354,1r100,-1005r-303,-1r-100,1007r-385,0","w":1755},"N":{"d":"-27,6r141,-1407r951,0v275,-6,419,144,389,447r-96,959r-373,0r94,-879v17,-91,-17,-127,-101,-127r-518,0r-100,1007r-387,0","w":1454},"O":{"d":"1045,20r-664,0v-295,1,-416,-236,-369,-713v48,-482,226,-728,539,-727r545,1v327,-6,449,225,413,698v-38,487,-177,741,-464,741xm395,-466v23,63,60,114,123,114r392,-1v67,-7,113,-38,140,-91v33,-37,55,-129,68,-274v13,-145,2,-236,-30,-277v-32,-41,-80,-72,-146,-72r-302,0v-87,7,-146,51,-186,127v-20,38,-43,117,-57,244v-14,127,-12,203,-2,230","w":1522},"P":{"d":"100,-1400r971,0v306,15,443,175,411,480v-32,305,-191,483,-482,483r-577,0r-44,436r-419,1xm466,-807r519,-2v77,1,121,-37,133,-111v12,-74,-24,-130,-109,-130r-519,0","w":1486},"Q":{"d":"1247,-57r72,130r-464,2r-35,-65r-444,0v-291,1,-411,-233,-364,-703v47,-475,223,-718,532,-717r537,1v323,-6,450,223,407,688v-33,357,-104,579,-241,664xm390,-469v22,62,59,112,121,112r387,-1v65,-7,111,-36,138,-89v32,-37,54,-128,66,-271v12,-143,2,-233,-29,-273v-32,-41,-78,-71,-144,-71r-298,0v-86,7,-143,50,-183,125v-20,38,-42,116,-56,241v-14,125,-12,200,-2,227","w":1496},"R":{"d":"99,-1400r970,0v293,49,429,207,418,476v-8,197,-82,352,-234,467r196,461r-467,0r-190,-441r-371,0r-43,436r-420,1xm465,-807r515,1v79,-1,124,-40,136,-114v12,-74,-24,-130,-108,-130r-519,0","w":1505},"S":{"d":"1034,-443v-19,-96,-91,-81,-218,-81r-366,0v-306,4,-463,-152,-422,-445v43,-302,191,-429,535,-429r826,0r-36,364r-775,0v-111,3,-152,-5,-196,69v16,100,74,85,190,85r379,0v291,14,429,166,389,464v-39,297,-182,420,-533,420r-846,0r36,-359r804,0v134,-6,203,18,233,-88","w":1345},"T":{"d":"1329,-1401r-39,396r-717,-1r-49,474v-1,84,42,139,129,139r851,1r-37,394r-964,0v-305,-15,-436,-190,-402,-525r50,-486r-115,2r40,-394r1253,0","w":1549},"U":{"d":"1477,-1399r-141,1402r-947,0v-274,5,-418,-144,-388,-446r96,-955r371,0r-93,875v-17,91,16,127,100,127r516,0r100,-1002","w":1438},"V":{"d":"515,-119r-510,-1279r488,0r324,822r467,-822r468,0r-738,1279v-57,93,-144,140,-263,140v-118,0,-198,-46,-236,-140","w":1699},"W":{"d":"1801,-1396r-141,1410r-1258,-3v-278,8,-426,-142,-395,-446r97,-960r356,-1r-85,852v-20,105,11,154,92,154r188,-1r102,-1004r354,0r-100,1007r304,0r100,-1008r386,0","w":1779},"X":{"d":"592,-695r-517,-699r537,0r221,310r289,-310r513,0r-625,679r526,719r-530,0r-240,-313r-308,313r-542,0","w":1556},"Y":{"d":"1466,-1398r-113,1131v-15,165,-117,286,-311,286r-1081,2r33,-375r843,1v85,1,136,-45,137,-130r-551,0v-274,7,-420,-144,-389,-447r48,-467r372,-1r-34,384v-9,80,20,131,90,131r514,0r55,-515r387,0","w":1438},"Z":{"d":"1399,-909r-660,514r727,0r-40,400r-1216,0v-144,-14,-229,-80,-241,-200v-12,-119,44,-217,151,-298r679,-511r-719,0r39,-394r1212,0v173,8,245,87,224,237v-15,107,-70,185,-156,252","w":1531},"\u0179":{"d":"1400,-909r-660,514r727,0r-40,400r-1216,0v-144,-14,-229,-80,-241,-200v-12,-119,44,-217,151,-298r679,-511r-719,0r39,-394r624,0r81,-117v63,-97,164,-142,303,-135v139,7,205,57,158,128r-82,124r128,0v173,8,245,87,224,237v-15,107,-70,185,-156,252","w":1526},"\u017b":{"d":"1402,-909r-660,514r727,0r-40,400r-1216,0v-144,-14,-229,-80,-241,-200v-12,-119,44,-217,151,-298r679,-511r-719,0r39,-394r1212,0v173,8,245,87,224,237v-15,107,-70,185,-156,252xm681,-1585v0,-121,63,-196,175,-196v120,0,190,65,190,181v0,115,-69,178,-193,178v-103,0,-172,-66,-172,-163","w":1530},"\u00af":{"d":"1402,-909r-660,514r727,0r-40,400r-1216,0v-144,-14,-229,-80,-241,-200v-12,-119,44,-217,151,-298r679,-511r-719,0r39,-394r1212,0v173,8,245,87,224,237v-15,107,-70,185,-156,252xm681,-1585v0,-121,63,-196,175,-196v120,0,190,65,190,181v0,115,-69,178,-193,178v-103,0,-172,-66,-172,-163","w":1530},"\u0104":{"d":"-38,-4r95,-953v44,-287,217,-450,519,-449r474,1v275,19,415,168,387,445r-96,958r-372,0r43,-426r-619,0r-45,424r-386,0xm443,-927r-16,149r621,0r13,-117v20,-108,-10,-181,-94,-181r-376,1v-100,3,-138,53,-148,148xm939,217v0,97,69,163,172,163v124,0,193,-63,193,-178v0,-116,-70,-181,-190,-181v-112,0,-175,75,-175,196","w":1430},"\u00a5":{"d":"-38,-4r95,-953v44,-287,217,-450,519,-449r474,1v275,19,415,168,387,445r-96,958r-372,0r43,-426r-619,0r-45,424r-386,0xm443,-927r-16,149r621,0r13,-117v20,-108,-10,-181,-94,-181r-376,1v-100,3,-138,53,-148,148xm939,217v0,97,69,163,172,163v124,0,193,-63,193,-178v0,-116,-70,-181,-190,-181v-112,0,-175,75,-175,196","w":1430},"\u0118":{"d":"1362,0r-986,0v-283,-17,-402,-250,-358,-700v44,-450,218,-697,524,-697r959,0r-34,340r-850,1v-72,-3,-118,14,-129,54r-34,120r997,1r-36,336r-989,-4v-3,86,3,187,73,187r899,-1xm980,210v0,97,69,163,172,163v124,0,193,-63,193,-178v0,-116,-70,-181,-190,-181v-112,0,-175,75,-175,196","w":1463},"\u00ca":{"d":"1362,0r-986,0v-283,-17,-402,-250,-358,-700v44,-450,218,-697,524,-697r959,0r-34,340r-850,1v-72,-3,-118,14,-129,54r-34,120r997,1r-36,336r-989,-4v-3,86,3,187,73,187r899,-1xm980,210v0,97,69,163,172,163v124,0,193,-63,193,-178v0,-116,-70,-181,-190,-181v-112,0,-175,75,-175,196","w":1463},"\u0106":{"d":"1361,0r-987,0v-284,-17,-404,-250,-360,-701v44,-451,219,-699,525,-699r961,1r-34,341r-849,0v-63,1,-110,23,-139,67v-68,173,-97,347,-81,520v5,56,41,91,100,106r900,2xm719,-1587v0,-121,63,-196,175,-196v120,0,190,65,190,181v0,115,-69,178,-193,178v-103,0,-172,-66,-172,-163","w":1461},"\u00c6":{"d":"1361,0r-987,0v-284,-17,-404,-250,-360,-701v44,-451,219,-699,525,-699r961,1r-34,341r-849,0v-63,1,-110,23,-139,67v-68,173,-97,347,-81,520v5,56,41,91,100,106r900,2xm719,-1587v0,-121,63,-196,175,-196v120,0,190,65,190,181v0,115,-69,178,-193,178v-103,0,-172,-66,-172,-163","w":1461},"\u0141":{"d":"549,-1401r-49,483r191,-18r-38,393r-192,14v-1,85,41,140,129,140r854,1r-37,395r-968,0v-305,-15,-437,-191,-403,-527r89,-881r424,0","w":1475},"\u00a3":{"d":"549,-1401r-49,483r191,-18r-38,393r-192,14v-1,85,41,140,129,140r854,1r-37,395r-968,0v-305,-15,-437,-191,-403,-527r89,-881r424,0","w":1475},"\u0143":{"d":"-34,6r141,-1407r951,0v275,-6,419,144,389,447r-96,959r-373,0r94,-879v17,-91,-17,-127,-101,-127r-518,0r-100,1007r-387,0xm618,-1603v0,-121,63,-196,175,-196v120,0,190,65,190,181v0,115,-69,178,-193,178v-103,0,-172,-66,-172,-163","w":1453},"\u00d1":{"d":"-34,6r141,-1407r951,0v275,-6,419,144,389,447r-96,959r-373,0r94,-879v17,-91,-17,-127,-101,-127r-518,0r-100,1007r-387,0xm618,-1603v0,-121,63,-196,175,-196v120,0,190,65,190,181v0,115,-69,178,-193,178v-103,0,-172,-66,-172,-163","w":1453},"\u0152":{"d":"1039,-443v-19,-96,-91,-81,-218,-81r-366,0v-306,4,-463,-152,-422,-445v43,-302,191,-429,535,-429r826,0r-36,364r-775,0v-111,3,-152,-5,-196,69v16,100,74,85,190,85r379,0v291,14,429,166,389,464v-39,297,-182,420,-533,420r-846,0r36,-359r804,0v134,-6,203,18,233,-88xm593,-1597v0,-121,63,-196,175,-196v120,0,190,65,190,181v0,115,-69,178,-193,178v-103,0,-172,-66,-172,-163","w":1355},"\u015a":{"d":"1039,-443v-19,-96,-91,-81,-218,-81r-366,0v-306,4,-463,-152,-422,-445v43,-302,191,-429,535,-429r826,0r-36,364r-775,0v-111,3,-152,-5,-196,69v16,100,74,85,190,85r379,0v291,14,429,166,389,464v-39,297,-182,420,-533,420r-846,0r36,-359r804,0v134,-6,203,18,233,-88xm593,-1597v0,-121,63,-196,175,-196v120,0,190,65,190,181v0,115,-69,178,-193,178v-103,0,-172,-66,-172,-163","w":1355},"[":{"w":282},"\\":{"w":318},"]":{"w":312},"^":{"w":330},"_":{"w":490},"`":{"w":357},"a":{"d":"-50,-4r95,-953v44,-287,217,-450,519,-449r474,1v275,19,415,168,387,445r-96,958r-372,0r43,-426r-622,-3r-42,427r-386,0xm431,-927r-16,149r621,0r13,-117v20,-108,-10,-181,-94,-181r-376,1v-100,3,-138,53,-148,148","w":1428},"b":{"d":"88,-1398r969,0v269,22,408,143,408,363v0,138,-48,244,-129,317v105,63,147,181,121,353v-37,246,-222,364,-551,364r-954,1xm411,-338r483,1v77,-3,120,-31,130,-85v10,-54,-29,-94,-117,-95r-478,-5xm459,-862r483,1v77,-3,120,-31,130,-85v10,-54,-27,-100,-111,-100r-484,0","w":1463},"c":{"d":"1361,0r-987,0v-284,-17,-404,-250,-360,-701v44,-451,219,-699,525,-699r961,1r-34,341r-849,0v-63,1,-110,23,-139,67v-68,173,-97,347,-81,520v5,56,41,91,100,106r900,2","w":1464},"d":{"d":"99,-1394r953,1v303,17,432,250,386,698v-46,448,-210,698,-497,698r-982,-1xm355,-354r547,1v58,-8,94,-43,125,-95v58,-98,104,-393,40,-529v-21,-47,-64,-75,-128,-75r-515,0","w":1460},"e":{"d":"1362,0r-986,0v-283,-17,-402,-250,-358,-700v44,-450,218,-697,524,-697r959,0r-34,340r-850,1v-72,-3,-118,14,-129,54r-34,120r997,1r-36,336r-989,-4v-3,86,3,187,73,187r899,-1","w":1466},"f":{"d":"-42,3r86,-878v31,-335,199,-525,507,-525r964,1r-34,342r-854,0v-73,-3,-125,31,-157,102r-7,73r1003,-1r-34,337r-997,-1r-56,550r-421,0","w":1472},"g":{"d":"1361,0r-987,0v-284,-17,-404,-250,-360,-701v44,-451,219,-699,525,-699r963,1r-36,341r-849,0v-63,1,-110,23,-139,67v-68,173,-97,347,-81,520v5,56,41,91,100,106r532,1r42,-409r367,1","w":1461},"h":{"d":"103,-1402r418,0r-52,518r520,-2r55,-519r418,3r-140,1406r-423,-2r56,-542r-521,0r-53,540r-418,0","w":1424},"i":{"d":"103,-1398r409,0r-139,1400r-418,0","w":480},"j":{"d":"938,-1406r-86,878v-31,335,-199,525,-507,525r-381,0r36,-342r269,-1v77,-2,146,-42,155,-131r93,-929r421,0","w":904},"k":{"d":"105,-1407r458,0r-67,674v12,-86,54,-152,111,-215r417,-459r552,0r-524,635v-42,49,-43,99,-9,152r399,616r-558,0r-329,-479v-49,-65,-70,-138,-62,-219r-70,698r-458,0","w":1524},"l":{"d":"528,-1401r-88,869v-1,84,42,139,129,139r851,1r-37,394r-964,0v-305,-15,-436,-190,-402,-525r89,-878r422,0","w":1451},"m":{"d":"-37,6r141,-1407r1255,3v277,-8,423,141,393,444r-96,959r-355,0r84,-849v20,-105,-10,-154,-91,-154r-188,1r-101,1001r-354,1r100,-1005r-303,-1r-100,1007r-385,0","w":1766},"n":{"d":"-44,6r141,-1407r951,0v275,-6,419,144,389,447r-96,959r-373,0r94,-879v17,-91,-17,-127,-101,-127r-518,0r-100,1007r-387,0","w":1438},"o":{"d":"1039,18r-662,0v-295,1,-415,-235,-368,-711v48,-480,225,-726,538,-725r543,1v326,-6,447,225,411,696v-37,485,-175,739,-462,739xm395,-469v22,62,59,112,121,112r387,-1v65,-7,111,-36,138,-89v32,-37,55,-128,67,-271v12,-143,1,-233,-30,-273v-32,-41,-78,-71,-144,-71r-298,0v-86,7,-143,50,-183,125v-20,38,-43,116,-57,241v-14,125,-11,200,-1,227","w":1506},"p":{"d":"104,-1400r971,0v306,15,443,175,411,480v-32,305,-191,483,-482,483r-577,0r-44,436r-419,1xm470,-807r519,-2v77,1,121,-37,133,-111v12,-74,-24,-130,-109,-130r-519,0","w":1489},"q":{"d":"1256,-57r72,130r-464,2r-35,-65r-444,0v-291,1,-411,-233,-364,-703v47,-475,223,-718,532,-717r537,1v323,-6,450,223,407,688v-33,357,-104,579,-241,664xm399,-469v22,62,59,112,121,112r387,-1v65,-7,111,-36,138,-89v32,-37,55,-128,67,-271v12,-143,1,-233,-30,-273v-32,-41,-78,-71,-144,-71r-298,0v-86,7,-143,50,-183,125v-20,38,-43,116,-57,241v-14,125,-11,200,-1,227","w":1514},"r":{"d":"101,-1400r970,0v293,49,429,207,418,476v-8,197,-82,352,-234,467r196,461r-467,0r-190,-441r-371,0r-43,436r-420,1xm467,-807r515,1v79,-1,124,-40,136,-114v12,-74,-24,-130,-108,-130r-519,0","w":1500},"s":{"d":"1034,-443v-19,-96,-91,-81,-218,-81r-366,0v-306,4,-463,-152,-422,-445v43,-302,191,-429,535,-429r826,0r-36,364r-775,0v-111,3,-152,-5,-196,69v16,100,74,85,190,85r379,0v291,14,429,166,389,464v-39,297,-182,420,-533,420r-846,0r36,-359r804,0v134,-6,203,18,233,-88","w":1350},"t":{"d":"1319,-1401r-39,396r-717,-1r-49,474v-1,84,42,139,129,139r851,1r-37,394r-964,0v-305,-15,-436,-190,-402,-525r50,-486r-115,2r40,-394r1253,0","w":1529},"u":{"d":"1479,-1400r-140,1398r-945,0v-273,6,-416,-143,-386,-444r95,-953r371,0r-94,873v-16,90,17,126,101,126r514,0r100,-999","w":1445},"v":{"d":"495,-119r-510,-1279r488,0r324,822r467,-822r468,0r-738,1279v-57,93,-144,140,-263,140v-118,0,-198,-46,-236,-140","w":1662},"w":{"d":"1804,-1396r-141,1410r-1258,-3v-278,8,-426,-142,-395,-446r97,-960r356,-1r-85,852v-20,105,11,154,92,154r188,-1r102,-1004r354,0r-100,1007r304,0r100,-1008r386,0","w":1782},"x":{"d":"612,-695r-517,-699r537,0r221,310r289,-310r513,0r-625,679r526,719r-530,0r-240,-313r-308,313r-542,0","w":1568},"y":{"d":"1483,-1398r-113,1131v-15,165,-117,286,-311,286r-1081,2r33,-375r843,1v85,1,136,-45,137,-130r-551,0v-274,7,-420,-144,-389,-447r48,-467r372,-1r-34,384v-9,80,20,131,90,131r514,0r55,-515r387,0","w":1451},"z":{"d":"1402,-909r-660,514r727,0r-40,400r-1216,0v-144,-14,-229,-80,-241,-200v-12,-119,44,-217,151,-298r679,-511r-719,0r39,-394r1212,0v173,8,245,87,224,237v-15,107,-70,185,-156,252","w":1542},"\u0178":{"d":"1400,-909r-660,514r727,0r-40,400r-1216,0v-144,-14,-229,-80,-241,-200v-12,-119,44,-217,151,-298r679,-511r-719,0r39,-394r624,0r81,-117v63,-97,164,-142,303,-135v139,7,205,57,158,128r-82,124r128,0v173,8,245,87,224,237v-15,107,-70,185,-156,252","w":1523},"\u017a":{"d":"1400,-909r-660,514r727,0r-40,400r-1216,0v-144,-14,-229,-80,-241,-200v-12,-119,44,-217,151,-298r679,-511r-719,0r39,-394r624,0r81,-117v63,-97,164,-142,303,-135v139,7,205,57,158,128r-82,124r128,0v173,8,245,87,224,237v-15,107,-70,185,-156,252","w":1523},"\u017c":{"d":"1392,-909r-660,514r727,0r-40,400r-1216,0v-144,-14,-229,-80,-241,-200v-12,-119,44,-217,151,-298r679,-511r-719,0r39,-394r1212,0v173,8,245,87,224,237v-15,107,-70,185,-156,252xm671,-1585v0,-121,63,-196,175,-196v120,0,190,65,190,181v0,115,-69,178,-193,178v-103,0,-172,-66,-172,-163","w":1520},"\u00bf":{"d":"1392,-909r-660,514r727,0r-40,400r-1216,0v-144,-14,-229,-80,-241,-200v-12,-119,44,-217,151,-298r679,-511r-719,0r39,-394r1212,0v173,8,245,87,224,237v-15,107,-70,185,-156,252xm671,-1585v0,-121,63,-196,175,-196v120,0,190,65,190,181v0,115,-69,178,-193,178v-103,0,-172,-66,-172,-163","w":1520},"\u0105":{"d":"-33,-4r95,-953v44,-287,217,-450,519,-449r474,1v275,19,415,168,387,445r-96,958r-372,0r43,-426r-619,0r-45,424r-386,0xm448,-927r-16,149r621,0r13,-117v20,-108,-10,-181,-94,-181r-376,1v-100,3,-138,53,-148,148xm944,217v0,97,69,163,172,163v124,0,193,-63,193,-178v0,-116,-70,-181,-190,-181v-112,0,-175,75,-175,196","w":1437},"\u00b9":{"d":"-33,-4r95,-953v44,-287,217,-450,519,-449r474,1v275,19,415,168,387,445r-96,958r-372,0r43,-426r-619,0r-45,424r-386,0xm448,-927r-16,149r621,0r13,-117v20,-108,-10,-181,-94,-181r-376,1v-100,3,-138,53,-148,148xm944,217v0,97,69,163,172,163v124,0,193,-63,193,-178v0,-116,-70,-181,-190,-181v-112,0,-175,75,-175,196","w":1437},"\u0119":{"d":"1370,0r-986,0v-283,-17,-402,-250,-358,-700v44,-450,218,-697,524,-697r959,0r-37,343r-847,-2v-72,-3,-118,14,-129,54r-34,120r994,-2r-36,336r-986,-1v-3,86,3,187,73,187r899,-1xm988,210v0,97,69,163,172,163v124,0,193,-63,193,-178v0,-116,-70,-181,-190,-181v-112,0,-175,75,-175,196","w":1472},"\u00ea":{"d":"1370,0r-986,0v-283,-17,-402,-250,-358,-700v44,-450,218,-697,524,-697r959,0r-37,343r-847,-2v-72,-3,-118,14,-129,54r-34,120r994,-2r-36,336r-986,-1v-3,86,3,187,73,187r899,-1xm988,210v0,97,69,163,172,163v124,0,193,-63,193,-178v0,-116,-70,-181,-190,-181v-112,0,-175,75,-175,196","w":1472},"\u0107":{"d":"1358,0r-987,0v-284,-17,-404,-250,-360,-701v44,-451,219,-699,525,-699r961,1r-34,341r-849,0v-63,1,-110,23,-139,67v-68,173,-97,347,-81,520v5,56,41,91,100,106r900,2xm716,-1587v0,-121,63,-196,175,-196v120,0,190,65,190,181v0,115,-69,178,-193,178v-103,0,-172,-66,-172,-163","w":1461},"\u00e6":{"d":"1358,0r-987,0v-284,-17,-404,-250,-360,-701v44,-451,219,-699,525,-699r961,1r-34,341r-849,0v-63,1,-110,23,-139,67v-68,173,-97,347,-81,520v5,56,41,91,100,106r900,2xm716,-1587v0,-121,63,-196,175,-196v120,0,190,65,190,181v0,115,-69,178,-193,178v-103,0,-172,-66,-172,-163","w":1461},"\u0142":{"d":"534,-1401r-49,483r191,-18r-38,393r-192,14v-1,85,41,140,129,140r854,1r-37,395r-968,0v-305,-15,-437,-191,-403,-527r89,-881r424,0","w":1457},"\u00b3":{"d":"534,-1401r-49,483r191,-18r-38,393r-192,14v-1,85,41,140,129,140r854,1r-37,395r-968,0v-305,-15,-437,-191,-403,-527r89,-881r424,0","w":1457},"\u0144":{"d":"-34,6r141,-1407r951,0v275,-6,419,144,389,447r-96,959r-373,0r94,-879v17,-91,-17,-127,-101,-127r-518,0r-100,1007r-387,0xm618,-1603v0,-121,63,-196,175,-196v120,0,190,65,190,181v0,115,-69,178,-193,178v-103,0,-172,-66,-172,-163","w":1454},"\u00f1":{"d":"-34,6r141,-1407r951,0v275,-6,419,144,389,447r-96,959r-373,0r94,-879v17,-91,-17,-127,-101,-127r-518,0r-100,1007r-387,0xm618,-1603v0,-121,63,-196,175,-196v120,0,190,65,190,181v0,115,-69,178,-193,178v-103,0,-172,-66,-172,-163","w":1454},"\u0153":{"d":"1033,-443v-19,-96,-91,-81,-218,-81r-366,0v-306,4,-463,-152,-422,-445v43,-302,191,-429,535,-429r826,0r-36,364r-775,0v-111,3,-152,-5,-196,69v16,100,74,85,190,85r379,0v291,14,429,166,389,464v-39,297,-182,420,-533,420r-846,0r36,-359r804,0v134,-6,203,18,233,-88xm587,-1597v0,-121,63,-196,175,-196v120,0,190,65,190,181v0,115,-69,178,-193,178v-103,0,-172,-66,-172,-163","w":1352},"\u015b":{"d":"1033,-443v-19,-96,-91,-81,-218,-81r-366,0v-306,4,-463,-152,-422,-445v43,-302,191,-429,535,-429r826,0r-36,364r-775,0v-111,3,-152,-5,-196,69v16,100,74,85,190,85r379,0v291,14,429,166,389,464v-39,297,-182,420,-533,420r-846,0r36,-359r804,0v134,-6,203,18,233,-88xm587,-1597v0,-121,63,-196,175,-196v120,0,190,65,190,181v0,115,-69,178,-193,178v-103,0,-172,-66,-172,-163","w":1352},"{":{"w":420},"|":{"w":201},"}":{"w":360},"~":{},"\u00c7":{"w":729},"\u00d6":{"w":696},"\u00dc":{"w":660},"\u00e7":{"w":510},"\u00f6":{"w":366},"\u00fc":{"w":342},"\u2020":{"w":451},"\u2022":{"w":387},"\u0192":{"w":576},"\u2026":{"w":792},"\u2013":{"w":684},"\u2014":{"w":894},"\u201c":{"w":342},"\u201d":{"w":300},"\u2018":{"w":237},"\u2019":{"w":240},"\u2039":{"w":321},"\u203a":{"w":321},"\u2021":{"w":336},"\u201a":{"w":234},"\u201e":{"w":402},"\u2030":{"w":729},"\u0160":{"w":621},"\u0161":{"w":342},"\u017d":{"w":690},"\u017e":{"w":462},"\u2044":{"w":234},"\u0131":{"w":234},"\u00a0":{"w":390}}});
